<BIF VERSION="0.3">
<NETWORK>
  <NAME>bayesiannetwork</NAME>

  <VARIABLE TYPE="nature">
    <NAME>synforcng</NAME>
    <OUTCOME>signegative</OUTCOME>
    <OUTCOME>negtopos</OUTCOME>
    <OUTCOME>sigpositive</OUTCOME>
    <OUTCOME>postoneg</OUTCOME>
    <OUTCOME>littlechange</OUTCOME>
    <PROPERTY>position = (600, -225)</PROPERTY>
  </VARIABLE>

  <VARIABLE TYPE="nature">
    <NAME>viscloudcov</NAME>
    <OUTCOME>cloudy</OUTCOME>
    <OUTCOME>pc</OUTCOME>
    <OUTCOME>clear</OUTCOME>
    <PROPERTY>position = (0, 0)</PROPERTY>
  </VARIABLE>

  <VARIABLE TYPE="nature">
    <NAME>subjvertmo</NAME>
    <OUTCOME>stronup</OUTCOME>
    <OUTCOME>weakup</OUTCOME>
    <OUTCOME>neutral</OUTCOME>
    <OUTCOME>down</OUTCOME>
    <PROPERTY>position = (150, 0)</PROPERTY>
  </VARIABLE>

  <VARIABLE TYPE="nature">
    <NAME>amcininscen</NAME>
    <OUTCOME>lessthanave</OUTCOME>
    <OUTCOME>average</OUTCOME>
    <OUTCOME>morethanave</OUTCOME>
    <PROPERTY>position = (450, -450)</PROPERTY>
  </VARIABLE>

  <VARIABLE TYPE="nature">
    <NAME>scenrel3_4</NAME>
    <OUTCOME>acefk</OUTCOME>
    <OUTCOME>b</OUTCOME>
    <OUTCOME>d</OUTCOME>
    <OUTCOME>gj</OUTCOME>
    <OUTCOME>hi</OUTCOME>
    <PROPERTY>position = (300, -300)</PROPERTY>
  </VARIABLE>

  <VARIABLE TYPE="nature">
    <NAME>date</NAME>
    <OUTCOME>may15_jun14</OUTCOME>
    <OUTCOME>jun15_jul1</OUTCOME>
    <OUTCOME>jul2_jul15</OUTCOME>
    <OUTCOME>jul16_aug10</OUTCOME>
    <OUTCOME>aug11_aug20</OUTCOME>
    <OUTCOME>aug20_sep15</OUTCOME>
    <PROPERTY>position = (300, 0)</PROPERTY>
  </VARIABLE>

  <VARIABLE TYPE="nature">
    <NAME>windfieldmt</NAME>
    <OUTCOME>westerly</OUTCOME>
    <OUTCOME>lvorother</OUTCOME>
    <PROPERTY>position = (750, -300)</PROPERTY>
  </VARIABLE>

  <VARIABLE TYPE="nature">
    <NAME>plainsfcst</NAME>
    <OUTCOME>xnil</OUTCOME>
    <OUTCOME>sig</OUTCOME>
    <OUTCOME>svr</OUTCOME>
    <PROPERTY>position = (750, -600)</PROPERTY>
  </VARIABLE>

  <VARIABLE TYPE="nature">
    <NAME>morningcin</NAME>
    <OUTCOME>none</OUTCOME>
    <OUTCOME>partinhibit</OUTCOME>
    <OUTCOME>stifling</OUTCOME>
    <OUTCOME>totalinhibit</OUTCOME>
    <PROPERTY>position = (450, 0)</PROPERTY>
  </VARIABLE>

  <VARIABLE TYPE="nature">
    <NAME>cldshadeoth</NAME>
    <OUTCOME>cloudy</OUTCOME>
    <OUTCOME>pc</OUTCOME>
    <OUTCOME>clear</OUTCOME>
    <PROPERTY>position = (0, -525)</PROPERTY>
  </VARIABLE>

  <VARIABLE TYPE="nature">
    <NAME>inschange</NAME>
    <OUTCOME>decreasing</OUTCOME>
    <OUTCOME>littlechange</OUTCOME>
    <OUTCOME>increasing</OUTCOME>
    <PROPERTY>position = (300, -600)</PROPERTY>
  </VARIABLE>

  <VARIABLE TYPE="nature">
    <NAME>tempdis</NAME>
    <OUTCOME>qstationary</OUTCOME>
    <OUTCOME>moving</OUTCOME>
    <OUTCOME>none</OUTCOME>
    <OUTCOME>other</OUTCOME>
    <PROPERTY>position = (150, -450)</PROPERTY>
  </VARIABLE>

  <VARIABLE TYPE="nature">
    <NAME>combclouds</NAME>
    <OUTCOME>cloudy</OUTCOME>
    <OUTCOME>pc</OUTCOME>
    <OUTCOME>clear</OUTCOME>
    <PROPERTY>position = (300, -225)</PROPERTY>
  </VARIABLE>

  <VARIABLE TYPE="nature">
    <NAME>curpropconv</NAME>
    <OUTCOME>none</OUTCOME>
    <OUTCOME>slight</OUTCOME>
    <OUTCOME>moderate</OUTCOME>
    <OUTCOME>strong</OUTCOME>
    <PROPERTY>position = (150, -225)</PROPERTY>
  </VARIABLE>

  <VARIABLE TYPE="nature">
    <NAME>wndhodograph</NAME>
    <OUTCOME>dcvzfavor</OUTCOME>
    <OUTCOME>strongwest</OUTCOME>
    <OUTCOME>westerly</OUTCOME>
    <OUTCOME>other</OUTCOME>
    <PROPERTY>position = (600, 0)</PROPERTY>
  </VARIABLE>

  <VARIABLE TYPE="nature">
    <NAME>satcontmoist</NAME>
    <OUTCOME>verywet</OUTCOME>
    <OUTCOME>wet</OUTCOME>
    <OUTCOME>neutral</OUTCOME>
    <OUTCOME>dry</OUTCOME>
    <PROPERTY>position = (750, 0)</PROPERTY>
  </VARIABLE>

  <VARIABLE TYPE="nature">
    <NAME>n34starfcst</NAME>
    <OUTCOME>xnil</OUTCOME>
    <OUTCOME>sig</OUTCOME>
    <OUTCOME>svr</OUTCOME>
    <PROPERTY>position = (0, -675)</PROPERTY>
  </VARIABLE>

  <VARIABLE TYPE="nature">
    <NAME>areamodryair</NAME>
    <OUTCOME>verywet</OUTCOME>
    <OUTCOME>wet</OUTCOME>
    <OUTCOME>neutral</OUTCOME>
    <OUTCOME>dry</OUTCOME>
    <PROPERTY>position = (750, -450)</PROPERTY>
  </VARIABLE>

  <VARIABLE TYPE="nature">
    <NAME>rhratio</NAME>
    <OUTCOME>moistmdryl</OUTCOME>
    <OUTCOME>drymmoistl</OUTCOME>
    <OUTCOME>other</OUTCOME>
    <PROPERTY>position = (450, -300)</PROPERTY>
  </VARIABLE>

  <VARIABLE TYPE="nature">
    <NAME>aminswliscen</NAME>
    <OUTCOME>lessunstable</OUTCOME>
    <OUTCOME>average</OUTCOME>
    <OUTCOME>moreunstable</OUTCOME>
    <PROPERTY>position = (600, -450)</PROPERTY>
  </VARIABLE>

  <VARIABLE TYPE="nature">
    <NAME>scnrelplfcst</NAME>
    <OUTCOME>a</OUTCOME>
    <OUTCOME>b</OUTCOME>
    <OUTCOME>c</OUTCOME>
    <OUTCOME>d</OUTCOME>
    <OUTCOME>e</OUTCOME>
    <OUTCOME>f</OUTCOME>
    <OUTCOME>g</OUTCOME>
    <OUTCOME>h</OUTCOME>
    <OUTCOME>i</OUTCOME>
    <OUTCOME>j</OUTCOME>
    <OUTCOME>k</OUTCOME>
    <PROPERTY>position = (600, -300)</PROPERTY>
  </VARIABLE>

  <VARIABLE TYPE="nature">
    <NAME>insinmt</NAME>
    <OUTCOME>none</OUTCOME>
    <OUTCOME>weak</OUTCOME>
    <OUTCOME>strong</OUTCOME>
    <PROPERTY>position = (150, -525)</PROPERTY>
  </VARIABLE>

  <VARIABLE TYPE="nature">
    <NAME>scenrelamins</NAME>
    <OUTCOME>abi</OUTCOME>
    <OUTCOME>cdej</OUTCOME>
    <OUTCOME>f</OUTCOME>
    <OUTCOME>g</OUTCOME>
    <OUTCOME>h</OUTCOME>
    <OUTCOME>k</OUTCOME>
    <PROPERTY>position = (150, -375)</PROPERTY>
  </VARIABLE>

  <VARIABLE TYPE="nature">
    <NAME>boundaries</NAME>
    <OUTCOME>none</OUTCOME>
    <OUTCOME>weak</OUTCOME>
    <OUTCOME>strong</OUTCOME>
    <PROPERTY>position = (750, -525)</PROPERTY>
  </VARIABLE>

  <VARIABLE TYPE="nature">
    <NAME>scenario</NAME>
    <OUTCOME>a</OUTCOME>
    <OUTCOME>b</OUTCOME>
    <OUTCOME>c</OUTCOME>
    <OUTCOME>d</OUTCOME>
    <OUTCOME>e</OUTCOME>
    <OUTCOME>f</OUTCOME>
    <OUTCOME>g</OUTCOME>
    <OUTCOME>h</OUTCOME>
    <OUTCOME>i</OUTCOME>
    <OUTCOME>j</OUTCOME>
    <OUTCOME>k</OUTCOME>
    <PROPERTY>position = (750, -150)</PROPERTY>
  </VARIABLE>

  <VARIABLE TYPE="nature">
    <NAME>dewpoints</NAME>
    <OUTCOME>lowevrywhere</OUTCOME>
    <OUTCOME>lowatstation</OUTCOME>
    <OUTCOME>lowshighn</OUTCOME>
    <OUTCOME>lownhighs</OUTCOME>
    <OUTCOME>lowmtshighpl</OUTCOME>
    <OUTCOME>highevrywher</OUTCOME>
    <OUTCOME>other</OUTCOME>
    <PROPERTY>position = (750, -375)</PROPERTY>
  </VARIABLE>

  <VARIABLE TYPE="nature">
    <NAME>windfieldpln</NAME>
    <OUTCOME>lv</OUTCOME>
    <OUTCOME>denvcyclone</OUTCOME>
    <OUTCOME>longanticyc</OUTCOME>
    <OUTCOME>e_ne</OUTCOME>
    <OUTCOME>sequad</OUTCOME>
    <OUTCOME>widespddnsl</OUTCOME>
    <PROPERTY>position = (0, -450)</PROPERTY>
  </VARIABLE>

  <VARIABLE TYPE="nature">
    <NAME>mountainfcst</NAME>
    <OUTCOME>xnil</OUTCOME>
    <OUTCOME>sig</OUTCOME>
    <OUTCOME>svr</OUTCOME>
    <PROPERTY>position = (600, -525)</PROPERTY>
  </VARIABLE>

  <VARIABLE TYPE="nature">
    <NAME>capinscen</NAME>
    <OUTCOME>lessthanave</OUTCOME>
    <OUTCOME>average</OUTCOME>
    <OUTCOME>morethanave</OUTCOME>
    <PROPERTY>position = (450, -600)</PROPERTY>
  </VARIABLE>

  <VARIABLE TYPE="nature">
    <NAME>lliw</NAME>
    <OUTCOME>unfavorable</OUTCOME>
    <OUTCOME>weak</OUTCOME>
    <OUTCOME>moderate</OUTCOME>
    <OUTCOME>strong</OUTCOME>
    <PROPERTY>position = (0, -75)</PROPERTY>
  </VARIABLE>

  <VARIABLE TYPE="nature">
    <NAME>raocontmoist</NAME>
    <OUTCOME>verywet</OUTCOME>
    <OUTCOME>wet</OUTCOME>
    <OUTCOME>neutral</OUTCOME>
    <OUTCOME>dry</OUTCOME>
    <PROPERTY>position = (150, -75)</PROPERTY>
  </VARIABLE>

  <VARIABLE TYPE="nature">
    <NAME>latestcin</NAME>
    <OUTCOME>none</OUTCOME>
    <OUTCOME>partinhibit</OUTCOME>
    <OUTCOME>stifling</OUTCOME>
    <OUTCOME>totalinhibit</OUTCOME>
    <PROPERTY>position = (300, -75)</PROPERTY>
  </VARIABLE>

  <VARIABLE TYPE="nature">
    <NAME>mvmtfeatures</NAME>
    <OUTCOME>strongfront</OUTCOME>
    <OUTCOME>markedupper</OUTCOME>
    <OUTCOME>otherrapid</OUTCOME>
    <OUTCOME>nomajor</OUTCOME>
    <PROPERTY>position = (0, -300)</PROPERTY>
  </VARIABLE>

  <VARIABLE TYPE="nature">
    <NAME>meanrh</NAME>
    <OUTCOME>verymoist</OUTCOME>
    <OUTCOME>average</OUTCOME>
    <OUTCOME>dry</OUTCOME>
    <PROPERTY>position = (150, -300)</PROPERTY>
  </VARIABLE>

  <VARIABLE TYPE="nature">
    <NAME>ircloudcover</NAME>
    <OUTCOME>cloudy</OUTCOME>
    <OUTCOME>pc</OUTCOME>
    <OUTCOME>clear</OUTCOME>
    <PROPERTY>position = (450, -75)</PROPERTY>
  </VARIABLE>

  <VARIABLE TYPE="nature">
    <NAME>midllapse</NAME>
    <OUTCOME>closetodryad</OUTCOME>
    <OUTCOME>steep</OUTCOME>
    <OUTCOME>moderateorle</OUTCOME>
    <PROPERTY>position = (300, -375)</PROPERTY>
  </VARIABLE>

  <VARIABLE TYPE="nature">
    <NAME>inssclinscen</NAME>
    <OUTCOME>lessunstable</OUTCOME>
    <OUTCOME>average</OUTCOME>
    <OUTCOME>moreunstable</OUTCOME>
    <PROPERTY>position = (600, -600)</PROPERTY>
  </VARIABLE>

  <VARIABLE TYPE="nature">
    <NAME>capchange</NAME>
    <OUTCOME>decreasing</OUTCOME>
    <OUTCOME>littlechange</OUTCOME>
    <OUTCOME>increasing</OUTCOME>
    <PROPERTY>position = (150, -600)</PROPERTY>
  </VARIABLE>

  <VARIABLE TYPE="nature">
    <NAME>outflowfrmt</NAME>
    <OUTCOME>none</OUTCOME>
    <OUTCOME>weak</OUTCOME>
    <OUTCOME>strong</OUTCOME>
    <PROPERTY>position = (300, -525)</PROPERTY>
  </VARIABLE>

  <VARIABLE TYPE="nature">
    <NAME>morningbound</NAME>
    <OUTCOME>none</OUTCOME>
    <OUTCOME>weak</OUTCOME>
    <OUTCOME>strong</OUTCOME>
    <PROPERTY>position = (600, -75)</PROPERTY>
  </VARIABLE>

  <VARIABLE TYPE="nature">
    <NAME>areameso_als</NAME>
    <OUTCOME>strongup</OUTCOME>
    <OUTCOME>weakup</OUTCOME>
    <OUTCOME>neutral</OUTCOME>
    <OUTCOME>down</OUTCOME>
    <PROPERTY>position = (300, -450)</PROPERTY>
  </VARIABLE>

  <VARIABLE TYPE="nature">
    <NAME>cldshadeconv</NAME>
    <OUTCOME>none</OUTCOME>
    <OUTCOME>some</OUTCOME>
    <OUTCOME>marked</OUTCOME>
    <PROPERTY>position = (450, -525)</PROPERTY>
  </VARIABLE>

  <VARIABLE TYPE="nature">
    <NAME>qgvertmotion</NAME>
    <OUTCOME>strongup</OUTCOME>
    <OUTCOME>weakup</OUTCOME>
    <OUTCOME>neutral</OUTCOME>
    <OUTCOME>down</OUTCOME>
    <PROPERTY>position = (750, -75)</PROPERTY>
  </VARIABLE>

  <VARIABLE TYPE="nature">
    <NAME>n0_7muvermo</NAME>
    <OUTCOME>strongup</OUTCOME>
    <OUTCOME>weakup</OUTCOME>
    <OUTCOME>neutral</OUTCOME>
    <OUTCOME>down</OUTCOME>
    <PROPERTY>position = (0, -150)</PROPERTY>
  </VARIABLE>

  <VARIABLE TYPE="nature">
    <NAME>lifr12zdensd</NAME>
    <OUTCOME>ligt0</OUTCOME>
    <OUTCOME>n1gtligt_4</OUTCOME>
    <OUTCOME>n5gtligt_8</OUTCOME>
    <OUTCOME>lilt_8</OUTCOME>
    <PROPERTY>position = (150, -150)</PROPERTY>
  </VARIABLE>

  <VARIABLE TYPE="nature">
    <NAME>sfcwndshfdis</NAME>
    <OUTCOME>denvcyclone</OUTCOME>
    <OUTCOME>e_w_n</OUTCOME>
    <OUTCOME>e_w_s</OUTCOME>
    <OUTCOME>movingftorot</OUTCOME>
    <OUTCOME>dryline</OUTCOME>
    <OUTCOME>none</OUTCOME>
    <OUTCOME>other</OUTCOME>
    <PROPERTY>position = (750, -225)</PROPERTY>
  </VARIABLE>

  <VARIABLE TYPE="nature">
    <NAME>r5fcst</NAME>
    <OUTCOME>xnil</OUTCOME>
    <OUTCOME>sig</OUTCOME>
    <OUTCOME>svr</OUTCOME>
    <PROPERTY>position = (150, -675)</PROPERTY>
  </VARIABLE>

  <VARIABLE TYPE="nature">
    <NAME>combmoisture</NAME>
    <OUTCOME>verywet</OUTCOME>
    <OUTCOME>wet</OUTCOME>
    <OUTCOME>neutral</OUTCOME>
    <OUTCOME>dry</OUTCOME>
    <PROPERTY>position = (0, -225)</PROPERTY>
  </VARIABLE>

  <VARIABLE TYPE="nature">
    <NAME>lolevmoistad</NAME>
    <OUTCOME>strongpos</OUTCOME>
    <OUTCOME>weakpos</OUTCOME>
    <OUTCOME>neutral</OUTCOME>
    <OUTCOME>negative</OUTCOME>
    <PROPERTY>position = (300, -150)</PROPERTY>
  </VARIABLE>

  <VARIABLE TYPE="nature">
    <NAME>scenrelamcin</NAME>
    <OUTCOME>ab</OUTCOME>
    <OUTCOME>cthruk</OUTCOME>
    <PROPERTY>position = (0, -375)</PROPERTY>
  </VARIABLE>

  <VARIABLE TYPE="nature">
    <NAME>aminstabmt</NAME>
    <OUTCOME>none</OUTCOME>
    <OUTCOME>weak</OUTCOME>
    <OUTCOME>strong</OUTCOME>
    <PROPERTY>position = (450, -150)</PROPERTY>
  </VARIABLE>

  <VARIABLE TYPE="nature">
    <NAME>lowllapse</NAME>
    <OUTCOME>closetodryad</OUTCOME>
    <OUTCOME>steep</OUTCOME>
    <OUTCOME>moderateorle</OUTCOME>
    <OUTCOME>stable</OUTCOME>
    <PROPERTY>position = (450, -375)</PROPERTY>
  </VARIABLE>

  <VARIABLE TYPE="nature">
    <NAME>windaloft</NAME>
    <OUTCOME>lv</OUTCOME>
    <OUTCOME>swquad</OUTCOME>
    <OUTCOME>nwquad</OUTCOME>
    <OUTCOME>allelse</OUTCOME>
    <PROPERTY>position = (600, -375)</PROPERTY>
  </VARIABLE>

  <VARIABLE TYPE="nature">
    <NAME>compplfcst</NAME>
    <OUTCOME>inccapdecins</OUTCOME>
    <OUTCOME>littlechange</OUTCOME>
    <OUTCOME>deccapincins</OUTCOME>
    <PROPERTY>position = (0, -600)</PROPERTY>
  </VARIABLE>

  <VARIABLE TYPE="nature">
    <NAME>combvermo</NAME>
    <OUTCOME>strongup</OUTCOME>
    <OUTCOME>weakup</OUTCOME>
    <OUTCOME>neutral</OUTCOME>
    <OUTCOME>down</OUTCOME>
    <PROPERTY>position = (450, -225)</PROPERTY>
  </VARIABLE>

  <VARIABLE TYPE="nature">
    <NAME>amdewptcalpl</NAME>
    <OUTCOME>instability</OUTCOME>
    <OUTCOME>neutral</OUTCOME>
    <OUTCOME>stability</OUTCOME>
    <PROPERTY>position = (600, -150)</PROPERTY>
  </VARIABLE>

  <DEFINITION>
    <FOR>synforcng</FOR>
    <GIVEN>scenario</GIVEN>
    <TABLE>0.35 0.25 0.0 0.35 0.05 0.06 0.1 0.06 0.3 0.48 0.1 0.27 0.4 0.08 0.15 0.35 0.2 0.1 0.25 0.1 0.15 0.15 0.1 0.15 0.45 0.15 0.1 0.05 0.15 0.55 0.15 0.1 0.1 0.25 0.4 0.25 0.25 0.25 0.15 0.1 0.25 0.2 0.15 0.2 0.2 0.01 0.05 0.01 0.05 0.88 0.2 0.2 0.35 0.15 0.1 </TABLE>
  </DEFINITION>

  <DEFINITION>
    <FOR>viscloudcov</FOR>
    <TABLE>0.1 0.5 0.4 </TABLE>
  </DEFINITION>

  <DEFINITION>
    <FOR>subjvertmo</FOR>
    <TABLE>0.15 0.15 0.5 0.2 </TABLE>
  </DEFINITION>

  <DEFINITION>
    <FOR>amcininscen</FOR>
    <GIVEN>scenrelamcin</GIVEN>
    <GIVEN>morningcin</GIVEN>
    <TABLE>1.0 0.0 0.0 0.6 0.37 0.03 0.25 0.45 0.3 0.0 0.1 0.9 0.75 0.25 0.0 0.30000000000000004 0.6000000000000001 0.10000000000000002 0.01 0.4 0.59 0.0 0.03 0.97 </TABLE>
  </DEFINITION>

  <DEFINITION>
    <FOR>scenrel3_4</FOR>
    <GIVEN>scenario</GIVEN>
    <TABLE>1.0 0.0 0.0 0.0 0.0 0.0 1.0 0.0 0.0 0.0 1.0 0.0 0.0 0.0 0.0 0.0 0.0 1.0 0.0 0.0 1.0 0.0 0.0 0.0 0.0 1.0 0.0 0.0 0.0 0.0 0.0 0.0 0.0 1.0 0.0 0.0 0.0 0.0 0.0 1.0 0.0 0.0 0.0 0.0 1.0 0.0 0.0 0.0 1.0 0.0 1.0 0.0 0.0 0.0 0.0 </TABLE>
  </DEFINITION>

  <DEFINITION>
    <FOR>date</FOR>
    <TABLE>0.254098 0.131148 0.106557 0.213115 0.07377 0.221312 </TABLE>
  </DEFINITION>

  <DEFINITION>
    <FOR>windfieldmt</FOR>
    <GIVEN>scenario</GIVEN>
    <TABLE>0.8 0.2 0.35 0.65 0.75 0.25 0.7 0.3 0.65 0.35 0.15 0.85 0.7 0.3 0.3 0.7 0.5 0.5 0.01 0.99 0.7 0.3 </TABLE>
  </DEFINITION>

  <DEFINITION>
    <FOR>plainsfcst</FOR>
    <GIVEN>curpropconv</GIVEN>
    <GIVEN>inssclinscen</GIVEN>
    <GIVEN>capinscen</GIVEN>
    <GIVEN>scnrelplfcst</GIVEN>
    <TABLE>0.75 0.2 0.05 0.75 0.2 0.05 0.9 0.08 0.02 0.9 0.06 0.04 0.88 0.1 0.02 0.92 0.08 0.0 0.85 0.13 0.02 1.0 0.0 0.0 0.9 0.08 0.02 0.9 0.08 0.02 0.95 0.04 0.01 0.75 0.2 0.05 0.65 0.3 0.05 0.9 0.08 0.02 0.91 0.05 0.04 0.85 0.13 0.02 0.9 0.1 0.0 0.84 0.12 0.04 0.99 0.01 0.0 0.88 0.1 0.02 0.92 0.06 0.02 0.96 0.03 0.01 0.75 0.2 0.05 0.75 0.2 0.05 0.95 0.04 0.01 0.93 0.04 0.03 0.92 0.06 0.02 0.87 0.13 0.0 0.9 0.06 0.04 0.98 0.02 0.0 0.92 0.06 0.02 0.95 0.04 0.01 0.97 0.02 0.01 0.5 0.3 0.2 0.6000000000000001 0.30000000000000004 0.10000000000000002 0.8 0.14 0.06 0.85 0.09 0.06 0.85 0.1 0.05 0.88 0.11 0.01 0.8 0.17 0.03 0.92 0.06 0.02 0.8 0.12 0.08 0.75 0.22 0.03 0.9 0.08 0.02 0.35000000000000003 0.30000000000000004 0.35000000000000003 0.55 0.3 0.15 0.82 0.13 0.05 0.8200000000000001 0.10000000000000002 0.08000000000000002 0.75 0.18 0.07 0.88 0.11 0.01 0.75 0.2 0.05 0.9 0.07 0.03 0.7000000000000001 0.20000000000000004 0.10000000000000002 0.8 0.15 0.05 0.9 0.08 0.02 0.5 0.2 0.3 0.6 0.25 0.15 0.85 0.1 0.05 0.8500000000000001 0.07000000000000002 0.08000000000000002 0.75 0.15 0.1 0.85 0.14 0.01 0.75 0.2 0.05 0.94 0.05 0.01 0.65 0.22 0.13 0.83 0.1 0.07 0.93 0.06 0.01 0.35 0.2 0.45 0.45 0.35 0.2 0.8 0.1 0.1 0.72 0.14 0.14 0.78 0.15 0.07 0.86 0.12 0.02 0.65 0.25 0.1 0.85 0.1 0.05 0.65 0.2 0.15 0.7200000000000001 0.20000000000000004 0.08000000000000002 0.85 0.1 0.05 0.25 0.15 0.6 0.45 0.35 0.2 0.65 0.2 0.15 0.55 0.2 0.25 0.55 0.25 0.2 0.81 0.17 0.02 0.6 0.28 0.12 0.8 0.13 0.07 0.6 0.2 0.2 0.75 0.15 0.1 0.88 0.08 0.04 0.4 0.08 0.52 0.45 0.25 0.3 0.75 0.1 0.15 0.65 0.15 0.2 0.52 0.25 0.23 0.82 0.16 0.02 0.65 0.27 0.08 0.85 0.09 0.06 0.5 0.2 0.3 0.77 0.1 0.13 0.9 0.07 0.03 0.7 0.25 0.05 0.6 0.33 0.07 0.82 0.13 0.05 0.85 0.1 0.05 0.82 0.15 0.03 0.85 0.14 0.01 0.8 0.17 0.03 0.97 0.02 0.01 0.88 0.1 0.02 0.86 0.1 0.04 0.88 0.1 0.02 0.65 0.25 0.1 0.5800000000000001 0.32000000000000006 0.10000000000000002 0.8 0.15 0.05 0.85 0.1 0.05 0.8 0.16 0.04 0.83 0.16 0.01 0.77 0.17 0.06 0.93 0.06 0.01 0.85 0.12 0.03 0.85 0.1 0.05 0.9 0.08 0.02 0.6000000000000001 0.30000000000000004 0.10000000000000002 0.65 0.28 0.07 0.9 0.08 0.02 0.85 0.1 0.05 0.82 0.13 0.05 0.8 0.19 0.01 0.8 0.13 0.07 0.91 0.08 0.01 0.85 0.12 0.03 0.9 0.08 0.02 0.93 0.06 0.01 0.3 0.4 0.3 0.5499999999999999 0.33999999999999997 0.10999999999999997 0.7000000000000001 0.20000000000000004 0.10000000000000002 0.75 0.15 0.1 0.62 0.28 0.1 0.85 0.14 0.01 0.75 0.2 0.05 0.82 0.14 0.04 0.6 0.25 0.15 0.68 0.22 0.1 0.82 0.15 0.03 0.28 0.37 0.35 0.48 0.35 0.17 0.7000000000000001 0.20000000000000004 0.10000000000000002 0.7 0.17 0.13 0.6000000000000001 0.29000000000000004 0.11000000000000001 0.82 0.16 0.02 0.63 0.3 0.07 0.8 0.15 0.05 0.5 0.3 0.2 0.7000000000000001 0.20000000000000004 0.10000000000000002 0.8 0.16 0.04 0.4 0.28 0.32 0.5 0.25 0.25 0.7200000000000001 0.18000000000000002 0.10000000000000002 0.65 0.2 0.15 0.55 0.3 0.15 0.78 0.2 0.02 0.55 0.35 0.1 0.85 0.12 0.03 0.45 0.3 0.25 0.73 0.15 0.12 0.85 0.12 0.03 0.3 0.25 0.45 0.4 0.36 0.24 0.65 0.2 0.15 0.6 0.2 0.2 0.6 0.28 0.12 0.83 0.14 0.03 0.45 0.4 0.15 0.7000000000000001 0.18000000000000002 0.12000000000000001 0.55 0.25 0.2 0.6 0.25 0.15 0.7200000000000001 0.20000000000000004 0.08000000000000002 0.22 0.17 0.61 0.35 0.37 0.28 0.45 0.3 0.25 0.45 0.25 0.3 0.48 0.29 0.23 0.72 0.25 0.03 0.43 0.4 0.17 0.68 0.2 0.12 0.35000000000000003 0.30000000000000004 0.35000000000000003 0.6 0.2 0.2 0.74 0.16 0.1 0.27 0.1 0.63 0.35000000000000003 0.30000000000000004 0.35000000000000003 0.55 0.22 0.23 0.45 0.25 0.3 0.42 0.3 0.28 0.74 0.22 0.04 0.45 0.4 0.15 0.77 0.13 0.1 0.3 0.25 0.45 0.68 0.15 0.17 0.75 0.15 0.1 0.5 0.4 0.1 0.45 0.42 0.13 0.75 0.18 0.07 0.75 0.15 0.1 0.72 0.22 0.06 0.78 0.21 0.01 0.66 0.27 0.07 0.88 0.1 0.02 0.7000000000000001 0.22000000000000003 0.08000000000000002 0.78 0.16 0.06 0.8 0.16 0.04 0.45 0.35 0.2 0.45 0.35 0.2 0.7000000000000001 0.20000000000000004 0.10000000000000002 0.72 0.17 0.11 0.7000000000000001 0.22000000000000003 0.08000000000000002 0.75 0.24 0.01 0.6200000000000001 0.30000000000000004 0.08000000000000002 0.85 0.12 0.03 0.75 0.15 0.1 0.76 0.17 0.07 0.8 0.16 0.04 0.35 0.4 0.25 0.45 0.4 0.15 0.75 0.19 0.06 0.7000000000000001 0.20000000000000004 0.10000000000000002 0.6000000000000001 0.30000000000000004 0.10000000000000002 0.72 0.27 0.01 0.6000000000000001 0.30000000000000004 0.10000000000000002 0.8 0.16 0.04 0.75 0.17 0.08 0.75 0.2 0.05 0.88 0.1 0.02 0.2 0.45 0.35 0.4 0.4 0.2 0.7000000000000001 0.20000000000000004 0.10000000000000002 0.65 0.22 0.13 0.5 0.34 0.16 0.74 0.24 0.02 0.6000000000000001 0.30000000000000004 0.10000000000000002 0.67 0.24 0.09 0.35 0.4 0.25 0.6 0.25 0.15 0.75 0.2 0.05 0.23 0.4 0.37 0.38 0.35 0.27 0.58 0.25 0.17 0.55 0.25 0.2 0.53 0.32 0.15 0.73 0.25 0.02 0.35 0.53 0.12 0.65 0.24 0.11 0.3 0.4 0.3 0.6 0.24 0.16 0.68 0.24 0.08 0.3 0.34 0.36 0.35 0.35 0.3 0.55 0.25 0.2 0.5 0.27 0.23 0.4 0.38 0.22 0.7 0.28 0.02 0.35 0.5 0.15 0.6 0.25 0.15 0.35 0.35 0.3 0.62 0.22 0.16 0.7000000000000001 0.22000000000000003 0.08000000000000002 0.25 0.28 0.47 0.3 0.38 0.32 0.45 0.3 0.25 0.5 0.25 0.25 0.4 0.35 0.25 0.72 0.24 0.04 0.25 0.57 0.18 0.57 0.28 0.15 0.25 0.35 0.4 0.48 0.26 0.26 0.6 0.26 0.14 0.19 0.18 0.63 0.25 0.4 0.35 0.35000000000000003 0.30000000000000004 0.35000000000000003 0.35000000000000003 0.30000000000000004 0.35000000000000003 0.35 0.35 0.3 0.65 0.3 0.05 0.22 0.58 0.2 0.45 0.35 0.2 0.25 0.34 0.41 0.48 0.26 0.26 0.58 0.25 0.17 0.15 0.16 0.69 0.25 0.3 0.45 0.4 0.3 0.3 0.3 0.3 0.4 0.25 0.4 0.35 0.6 0.34 0.06 0.18 0.62 0.2 0.47 0.3 0.23 0.25 0.3 0.45 0.5 0.22 0.28 0.5 0.27 0.23 0.4 0.45 0.15 0.35 0.45 0.2 0.6 0.27 0.13 0.6 0.22 0.18 0.55 0.32 0.13 0.69 0.29 0.02 0.54 0.36 0.1 0.75 0.2 0.05 0.55 0.3 0.15 0.7000000000000001 0.22000000000000003 0.08000000000000002 0.7 0.25 0.05 0.35 0.4 0.25 0.35 0.4 0.25 0.55 0.3 0.15 0.55 0.27 0.18 0.5 0.35 0.15 0.65 0.33 0.02 0.38 0.5 0.12 0.7 0.24 0.06 0.65 0.2 0.15 0.67 0.23 0.1 0.7 0.25 0.05 0.2 0.45 0.35 0.3 0.45 0.25 0.55 0.3 0.15 0.5 0.3 0.2 0.45 0.38 0.17 0.6 0.38 0.02 0.28 0.57 0.15 0.65 0.28 0.07 0.63 0.25 0.12 0.62 0.28 0.1 0.8 0.17 0.03 0.16 0.47 0.37 0.3 0.45 0.25 0.45 0.32 0.23 0.52 0.26 0.22 0.35 0.45 0.2 0.65 0.32 0.03 0.48 0.39 0.13 0.5800000000000001 0.30000000000000004 0.12000000000000001 0.25 0.45 0.3 0.5 0.28 0.22 0.65 0.27 0.08 0.18 0.45 0.37 0.30000000000000004 0.35000000000000003 0.35000000000000003 0.45 0.3 0.25 0.45 0.3 0.25 0.35 0.43 0.22 0.62 0.35 0.03 0.2 0.65 0.15 0.52 0.33 0.15 0.23 0.42 0.35 0.47 0.3 0.23 0.55 0.3 0.15 0.23 0.4 0.37 0.25 0.4 0.35 0.4 0.3 0.3 0.4 0.3 0.3 0.3 0.45 0.25 0.57 0.4 0.03 0.15 0.65 0.2 0.5 0.33 0.17 0.25 0.36 0.39 0.5 0.28 0.22 0.55 0.3 0.15 0.18 0.3 0.52 0.2 0.4 0.4 0.3 0.3 0.4 0.4 0.3 0.3 0.25 0.48 0.27 0.63 0.32 0.05 0.15 0.63 0.22 0.4 0.38 0.22 0.2 0.37 0.43 0.30000000000000004 0.35000000000000003 0.35000000000000003 0.5 0.32 0.18 0.15 0.2 0.65 0.18 0.4 0.42 0.25 0.35 0.4 0.25 0.35 0.4 0.25 0.42 0.33 0.58 0.36 0.06 0.13 0.62 0.25 0.3 0.45 0.25 0.22 0.35 0.43 0.35 0.32 0.33 0.5 0.3 0.2 0.1 0.2 0.7 0.2 0.3 0.5 0.2 0.4 0.4 0.23 0.3 0.47 0.15 0.45 0.4 0.5000000000000001 0.42000000000000004 0.08000000000000002 0.1 0.65 0.25 0.28 0.4 0.32 0.2 0.32 0.48 0.3 0.28 0.42 0.38 0.32 0.3 </TABLE>
  </DEFINITION>

  <DEFINITION>
    <FOR>morningcin</FOR>
    <TABLE>0.15000000000000002 0.5700000000000001 0.20000000000000004 0.08000000000000002 </TABLE>
  </DEFINITION>

  <DEFINITION>
    <FOR>cldshadeoth</FOR>
    <GIVEN>areamodryair</GIVEN>
    <GIVEN>areameso_als</GIVEN>
    <GIVEN>combclouds</GIVEN>
    <TABLE>1.0 0.0 0.0 0.85 0.15 0.0 0.25 0.35 0.4 0.95 0.05 0.0 0.4 0.55 0.05 0.05 0.45 0.5 0.93 0.07 0.0 0.2 0.78 0.02 0.01 0.29 0.7 0.74 0.25 0.01 0.0 0.5 0.5 0.0 0.1 0.9 0.92 0.08 0.0 0.7 0.29 0.01 0.15 0.4 0.45 0.9 0.09 0.01 0.25 0.6 0.15 0.01 0.3 0.69 0.8 0.2 0.0 0.01 0.89 0.1 0.0 0.1 0.9 0.65 0.34 0.01 0.0 0.4 0.6 0.0 0.02 0.98 0.88 0.12 0.0 0.4 0.5 0.1 0.1 0.4 0.5 0.85 0.15 0.0 0.15 0.75 0.1 0.0 0.2 0.8 0.8 0.18 0.02 0.03 0.85 0.12 0.0 0.05 0.95 0.5 0.48 0.02 0.01 0.74 0.25 0.0 0.01 0.99 0.85 0.14 0.01 0.55 0.43 0.02 0.1 0.25 0.65 0.6 0.39 0.01 0.01 0.9 0.09 0.0 0.15 0.85 0.78 0.2 0.02 0.01 0.74 0.25 0.0 0.04 0.96 0.42 0.55 0.03 0.05 0.65 0.3 0.0 0.0 1.0 </TABLE>
  </DEFINITION>

  <DEFINITION>
    <FOR>inschange</FOR>
    <GIVEN>lolevmoistad</GIVEN>
    <GIVEN>compplfcst</GIVEN>
    <TABLE>0.0 0.05 0.95 0.0 0.12 0.88 0.05 0.15 0.8 0.05 0.15 0.8 0.1 0.4 0.5 0.25 0.5 0.25 0.15 0.5 0.35 0.2 0.6 0.2 0.35 0.5 0.15 0.5 0.4 0.1 0.8 0.16 0.04 0.9 0.09 0.01 </TABLE>
  </DEFINITION>

  <DEFINITION>
    <FOR>tempdis</FOR>
    <GIVEN>scenario</GIVEN>
    <TABLE>0.13 0.15 0.1 0.62 0.15 0.15 0.25 0.45 0.12 0.1 0.35 0.43 0.1 0.15 0.4 0.35 0.04000000000000001 0.04000000000000001 0.8200000000000001 0.10000000000000002 0.05000000000000001 0.12000000000000001 0.7500000000000001 0.08000000000000002 0.030000000000000002 0.030000000000000002 0.8400000000000001 0.10000000000000002 0.05 0.4 0.5 0.05 0.8 0.19 0.0 0.01 0.1 0.05 0.4 0.45 0.2 0.3 0.3 0.2 </TABLE>
  </DEFINITION>

  <DEFINITION>
    <FOR>combclouds</FOR>
    <GIVEN>viscloudcov</GIVEN>
    <GIVEN>ircloudcover</GIVEN>
    <TABLE>0.95 0.04 0.01 0.85 0.13 0.02 0.8 0.1 0.1 0.45 0.52 0.03 0.1 0.8 0.1 0.05 0.45 0.5 0.1 0.4 0.5 0.02 0.28 0.7 0.0 0.02 0.98 </TABLE>
  </DEFINITION>

  <DEFINITION>
    <FOR>curpropconv</FOR>
    <GIVEN>latestcin</GIVEN>
    <GIVEN>lliw</GIVEN>
    <TABLE>0.7 0.28 0.02 0.0 0.10000000000000002 0.5000000000000001 0.30000000000000004 0.10000000000000002 0.01 0.14 0.35 0.5 0.0 0.02 0.18 0.8 0.9 0.09 0.01 0.0 0.65 0.25 0.09 0.01 0.25000000000000006 0.35000000000000003 0.30000000000000004 0.10000000000000002 0.01 0.15 0.33 0.51 0.95 0.05 0.0 0.0 0.75 0.23 0.02 0.0 0.4 0.4 0.18 0.02 0.2 0.3 0.35 0.15 1.0 0.0 0.0 0.0 0.95 0.05 0.0 0.0 0.75 0.2 0.05 0.0 0.5 0.35 0.1 0.05 </TABLE>
  </DEFINITION>

  <DEFINITION>
    <FOR>wndhodograph</FOR>
    <TABLE>0.3 0.25 0.25 0.2 </TABLE>
  </DEFINITION>

  <DEFINITION>
    <FOR>satcontmoist</FOR>
    <TABLE>0.15 0.2 0.4 0.25 </TABLE>
  </DEFINITION>

  <DEFINITION>
    <FOR>n34starfcst</FOR>
    <GIVEN>scenrel3_4</GIVEN>
    <GIVEN>plainsfcst</GIVEN>
    <TABLE>0.94 0.05 0.01 0.06 0.89 0.05 0.01 0.05 0.94 0.98 0.02 0.0 0.04 0.94 0.02 0.0 0.03 0.97 0.92 0.06 0.02 0.01 0.89 0.1 0.0 0.01 0.99 0.92 0.06 0.02 0.03 0.92 0.05 0.01 0.04 0.95 0.99 0.01 0.0 0.09 0.9 0.01 0.03 0.12 0.85 </TABLE>
  </DEFINITION>

  <DEFINITION>
    <FOR>areamodryair</FOR>
    <GIVEN>areameso_als</GIVEN>
    <GIVEN>combmoisture</GIVEN>
    <TABLE>0.99 0.01 0.0 0.0 0.7 0.29 0.01 0.0 0.2 0.55 0.24 0.01 0.0 0.25 0.55 0.2 0.8 0.2 0.0 0.0 0.35 0.55 0.1 0.0 0.01 0.39 0.55 0.05 0.0 0.02 0.43 0.55 0.7 0.29 0.01 0.0 0.2 0.6 0.2 0.0 0.01 0.09 0.8 0.1 0.0 0.0 0.3 0.7 0.2 0.74 0.06 0.0 0.05 0.4 0.45 0.1 0.0 0.05 0.5 0.45 0.0 0.0 0.01 0.99 </TABLE>
  </DEFINITION>

  <DEFINITION>
    <FOR>rhratio</FOR>
    <GIVEN>scenario</GIVEN>
    <TABLE>0.05 0.5 0.45 0.1 0.5 0.4 0.4 0.15 0.45 0.2 0.45 0.35 0.8 0.05 0.15 0.0 0.0 1.0 0.6 0.0 0.4 0.0 0.7 0.3 0.1 0.7 0.2 0.4 0.4 0.2 0.15 0.45 0.4 </TABLE>
  </DEFINITION>

  <DEFINITION>
    <FOR>aminswliscen</FOR>
    <GIVEN>scenrelamins</GIVEN>
    <GIVEN>lifr12zdensd</GIVEN>
    <GIVEN>amdewptcalpl</GIVEN>
    <TABLE>0.6000000000000001 0.30000000000000004 0.10000000000000002 0.85 0.13 0.02 0.95 0.04 0.01 0.3 0.3 0.4 0.5 0.3 0.2 0.75 0.2 0.05 0.06 0.21 0.73 0.2 0.4 0.4 0.5 0.4 0.1 0.01 0.04 0.95 0.05 0.2 0.75 0.35 0.35 0.3 0.4 0.3 0.3 0.7000000000000001 0.20000000000000004 0.10000000000000002 0.9 0.08 0.02 0.15 0.3 0.55 0.25 0.5 0.25 0.6000000000000001 0.30000000000000004 0.10000000000000002 0.03 0.17 0.8 0.2 0.3 0.5 0.45 0.4 0.15 0.01 0.04 0.95 0.05 0.18 0.77 0.25 0.4 0.35 0.35 0.35 0.3 0.55 0.4 0.05 0.85 0.13 0.02 0.07 0.38 0.55 0.2 0.6 0.2 0.5 0.43 0.07 0.0 0.05 0.95 0.05 0.35 0.6 0.25 0.5 0.25 0.0 0.02 0.98 0.0 0.05 0.95 0.04 0.16 0.8 0.3 0.4 0.3 0.5 0.3 0.2 0.75 0.2 0.05 0.15 0.35 0.5 0.2 0.6 0.2 0.15 0.7 0.15 0.07 0.23 0.7 0.13 0.47 0.4 0.1 0.75 0.15 0.02 0.18 0.8 0.04 0.26 0.7 0.07 0.3 0.63 0.35 0.45 0.2 0.4 0.5 0.1 0.58 0.4 0.02 0.1 0.25 0.65 0.15 0.45 0.4 0.4 0.45 0.15 0.02 0.18 0.8 0.05 0.25 0.7 0.15 0.35 0.5 0.01 0.09 0.9 0.03 0.17 0.8 0.08 0.32 0.6 0.3 0.55 0.15 0.4 0.5 0.1 0.5 0.43 0.07 0.1 0.35 0.55 0.25 0.5 0.25 0.3 0.5 0.2 0.05 0.22 0.73 0.1 0.35 0.55 0.15 0.35 0.5 0.02 0.1 0.88 0.04 0.16 0.8 0.1 0.25 0.65 </TABLE>
  </DEFINITION>

  <DEFINITION>
    <FOR>scnrelplfcst</FOR>
    <GIVEN>scenario</GIVEN>
    <TABLE>1.0 0.0 0.0 0.0 0.0 0.0 0.0 0.0 0.0 0.0 0.0 0.0 1.0 0.0 0.0 0.0 0.0 0.0 0.0 0.0 0.0 0.0 0.0 0.0 1.0 0.0 0.0 0.0 0.0 0.0 0.0 0.0 0.0 0.0 0.0 0.0 1.0 0.0 0.0 0.0 0.0 0.0 0.0 0.0 0.0 0.0 0.0 0.0 1.0 0.0 0.0 0.0 0.0 0.0 0.0 0.0 0.0 0.0 0.0 0.0 1.0 0.0 0.0 0.0 0.0 0.0 0.0 0.0 0.0 0.0 0.0 0.0 1.0 0.0 0.0 0.0 0.0 0.0 0.0 0.0 0.0 0.0 0.0 0.0 1.0 0.0 0.0 0.0 0.0 0.0 0.0 0.0 0.0 0.0 0.0 0.0 1.0 0.0 0.0 0.0 0.0 0.0 0.0 0.0 0.0 0.0 0.0 0.0 1.0 0.0 0.0 0.0 0.0 0.0 0.0 0.0 0.0 0.0 0.0 0.0 1.0 </TABLE>
  </DEFINITION>

  <DEFINITION>
    <FOR>insinmt</FOR>
    <GIVEN>cldshadeoth</GIVEN>
    <GIVEN>aminstabmt</GIVEN>
    <TABLE>0.9 0.1 0.0 0.01 0.4 0.59 0.0 0.05 0.95 0.6 0.39 0.01 0.0 0.4 0.6 0.0 0.0 1.0 0.5 0.35 0.15 0.0 0.15 0.85 0.0 0.0 1.0 </TABLE>
  </DEFINITION>

  <DEFINITION>
    <FOR>scenrelamins</FOR>
    <GIVEN>scenario</GIVEN>
    <TABLE>1.0 0.0 0.0 0.0 0.0 0.0 1.0 0.0 0.0 0.0 0.0 0.0 0.0 1.0 0.0 0.0 0.0 0.0 0.0 1.0 0.0 0.0 0.0 0.0 0.0 1.0 0.0 0.0 0.0 0.0 0.0 0.0 1.0 0.0 0.0 0.0 0.0 0.0 0.0 1.0 0.0 0.0 0.0 0.0 0.0 0.0 1.0 0.0 1.0 0.0 0.0 0.0 0.0 0.0 0.0 1.0 0.0 0.0 0.0 0.0 0.0 0.0 0.0 0.0 0.0 1.0 </TABLE>
  </DEFINITION>

  <DEFINITION>
    <FOR>boundaries</FOR>
    <GIVEN>outflowfrmt</GIVEN>
    <GIVEN>wndhodograph</GIVEN>
    <GIVEN>morningbound</GIVEN>
    <TABLE>0.5 0.48 0.02 0.3 0.5 0.2 0.1 0.25 0.65 0.75 0.22 0.03 0.45 0.45 0.1 0.25 0.4 0.35 0.8 0.18 0.02 0.35 0.5 0.15 0.25 0.35 0.4 0.7 0.28 0.02 0.25 0.6 0.15 0.05 0.35 0.6 0.3 0.63 0.07 0.1 0.5 0.4 0.05 0.2 0.75 0.15 0.7 0.15 0.1 0.75 0.15 0.05 0.5 0.45 0.15 0.7 0.15 0.05 0.8 0.15 0.05 0.45 0.5 0.4 0.55 0.05 0.2 0.65 0.15 0.05 0.3 0.65 0.0 0.55 0.45 0.0 0.4 0.6 0.0 0.15 0.85 0.0 0.5 0.5 0.0 0.4 0.6 0.0 0.2 0.8 0.0 0.7 0.3 0.0 0.5 0.5 0.0 0.2 0.8 0.02 0.73 0.25 0.01 0.5 0.49 0.01 0.2 0.79 </TABLE>
  </DEFINITION>

  <DEFINITION>
    <FOR>scenario</FOR>
    <GIVEN>date</GIVEN>
    <TABLE>0.1 0.16 0.1 0.08 0.08 0.01 0.08 0.1 0.09 0.03 0.17 0.05 0.16 0.09 0.09 0.12 0.02 0.13 0.06 0.07 0.11 0.1 0.04 0.13 0.1 0.08 0.15 0.03 0.14 0.04 0.06 0.15 0.08 0.04 0.13 0.09 0.07 0.2 0.08 0.06 0.05 0.07 0.13 0.08 0.04 0.11 0.1 0.07 0.17 0.05 0.1 0.05 0.07 0.14 0.1 0.05 0.11 0.1 0.08 0.11 0.02 0.11 0.06 0.08 0.11 0.17 </TABLE>
  </DEFINITION>

  <DEFINITION>
    <FOR>dewpoints</FOR>
    <GIVEN>scenario</GIVEN>
    <TABLE>0.04 0.05 0.15 0.05 0.19 0.3 0.22 0.05 0.07 0.15 0.1 0.3 0.27 0.06 0.4 0.25 0.0 0.15 0.05 0.02 0.13 0.12999999999999998 0.21999999999999995 0.17999999999999997 0.06999999999999999 0.33999999999999997 0.029999999999999992 0.029999999999999992 0.15 0.2 0.2 0.18 0.11 0.11 0.05 0.0 0.0 0.0 0.0 0.0 0.98 0.02 0.5 0.27 0.15 0.02 0.02 0.0 0.04 0.0 0.02 0.1 0.05 0.5 0.2 0.13 0.0 0.02 0.7 0.0 0.2 0.04 0.04 0.1 0.45 0.1 0.05 0.26 0.02 0.02 0.1 0.1 0.1 0.2 0.05 0.1 0.35 </TABLE>
  </DEFINITION>

  <DEFINITION>
    <FOR>windfieldpln</FOR>
    <GIVEN>scenario</GIVEN>
    <TABLE>0.05 0.6 0.02 0.1 0.23 0.0 0.08 0.6 0.02 0.1 0.2 0.0 0.1 0.0 0.75 0.0 0.0 0.15 0.1 0.15 0.2 0.05 0.3 0.2 0.43 0.1 0.15 0.06 0.06 0.2 0.6 0.07 0.01 0.12 0.2 0.0 0.25 0.01 0.3 0.01 0.03 0.4 0.04 0.02 0.04 0.8 0.1 0.0 0.2 0.3 0.05 0.37 0.07 0.01 0.6 0.08 0.07 0.03 0.2 0.02 0.1 0.05 0.1 0.05 0.2 0.5 </TABLE>
  </DEFINITION>

  <DEFINITION>
    <FOR>mountainfcst</FOR>
    <GIVEN>insinmt</GIVEN>
    <TABLE>1.0 0.0 0.0 0.48 0.5 0.02 0.2 0.5 0.3 </TABLE>
  </DEFINITION>

  <DEFINITION>
    <FOR>capinscen</FOR>
    <GIVEN>amcininscen</GIVEN>
    <GIVEN>capchange</GIVEN>
    <TABLE>1.0 0.0 0.0 0.98 0.02 0.0 0.35 0.35 0.3 0.75 0.25 0.0 0.03 0.94 0.03 0.0 0.25 0.75 0.30000000000000004 0.35000000000000003 0.35000000000000003 0.0 0.02 0.98 0.0 0.0 1.0 </TABLE>
  </DEFINITION>

  <DEFINITION>
    <FOR>lliw</FOR>
    <TABLE>0.12 0.32 0.38 0.18 </TABLE>
  </DEFINITION>

  <DEFINITION>
    <FOR>raocontmoist</FOR>
    <TABLE>0.15 0.2 0.4 0.25 </TABLE>
  </DEFINITION>

  <DEFINITION>
    <FOR>latestcin</FOR>
    <TABLE>0.4 0.4 0.15 0.05 </TABLE>
  </DEFINITION>

  <DEFINITION>
    <FOR>mvmtfeatures</FOR>
    <GIVEN>scenario</GIVEN>
    <TABLE>0.25 0.55 0.2 0.0 0.05 0.1 0.1 0.75 0.1 0.3 0.3 0.3 0.17999999999999997 0.3799999999999999 0.33999999999999997 0.09999999999999998 0.02 0.02 0.26 0.7 0.05 0.07 0.05 0.83 0.1 0.25 0.15 0.5 0.0 0.6 0.1 0.3 0.2 0.1 0.2 0.5 0.04 0.0 0.04 0.92 0.5 0.35 0.09 0.06 </TABLE>
  </DEFINITION>

  <DEFINITION>
    <FOR>meanrh</FOR>
    <GIVEN>scenario</GIVEN>
    <TABLE>0.33 0.5 0.17 0.4 0.4 0.2 0.05 0.45 0.5 0.1 0.5 0.4 0.05 0.65 0.3 1.0 0.0 0.0 0.0 0.07 0.93 0.4 0.55 0.05 0.2 0.45 0.35 0.05 0.55 0.4 0.2 0.4 0.4 </TABLE>
  </DEFINITION>

  <DEFINITION>
    <FOR>ircloudcover</FOR>
    <TABLE>0.15 0.45 0.4 </TABLE>
  </DEFINITION>

  <DEFINITION>
    <FOR>midllapse</FOR>
    <GIVEN>scenario</GIVEN>
    <TABLE>0.25 0.55 0.2 0.25 0.5 0.25 0.4 0.38 0.22 0.43 0.37 0.2 0.02 0.38 0.6 0.0 0.1 0.9 0.84 0.16 0.0 0.25 0.31 0.44 0.41 0.29 0.3 0.23 0.42 0.35 0.16 0.28 0.56 </TABLE>
  </DEFINITION>

  <DEFINITION>
    <FOR>inssclinscen</FOR>
    <GIVEN>aminswliscen</GIVEN>
    <GIVEN>inschange</GIVEN>
    <TABLE>1.0 0.0 0.0 0.9 0.1 0.0 0.4 0.35 0.25 0.6 0.4 0.0 0.15 0.7 0.15 0.0 0.4 0.6 0.25 0.35 0.4 0.0 0.1 0.9 0.0 0.0 1.0 </TABLE>
  </DEFINITION>

  <DEFINITION>
    <FOR>capchange</FOR>
    <GIVEN>compplfcst</GIVEN>
    <TABLE>0.0 0.0 1.0 0.0 1.0 0.0 1.0 0.0 0.0 </TABLE>
  </DEFINITION>

  <DEFINITION>
    <FOR>outflowfrmt</FOR>
    <GIVEN>insinmt</GIVEN>
    <GIVEN>wndhodograph</GIVEN>
    <TABLE>1.0 0.0 0.0 1.0 0.0 0.0 1.0 0.0 0.0 1.0 0.0 0.0 0.5 0.4 0.1 0.15 0.4 0.45 0.35 0.6 0.05 0.8 0.19 0.01 0.05 0.45 0.5 0.01 0.15 0.84 0.1 0.25 0.65 0.6000000000000001 0.30000000000000004 0.10000000000000002 </TABLE>
  </DEFINITION>

  <DEFINITION>
    <FOR>morningbound</FOR>
    <TABLE>0.5 0.35 0.15 </TABLE>
  </DEFINITION>

  <DEFINITION>
    <FOR>areameso_als</FOR>
    <GIVEN>combvermo</GIVEN>
    <TABLE>1.0 0.0 0.0 0.0 0.0 1.0 0.0 0.0 0.0 0.0 1.0 0.0 0.0 0.0 0.0 1.0 </TABLE>
  </DEFINITION>

  <DEFINITION>
    <FOR>cldshadeconv</FOR>
    <GIVEN>insinmt</GIVEN>
    <GIVEN>wndhodograph</GIVEN>
    <TABLE>1.0 0.0 0.0 1.0 0.0 0.0 1.0 0.0 0.0 1.0 0.0 0.0 0.30000000000000004 0.6000000000000001 0.10000000000000002 0.20000000000000004 0.7000000000000001 0.10000000000000002 0.5 0.46 0.04 0.8 0.19 0.01 0.0 0.3 0.7 0.0 0.2 0.8 0.1 0.5 0.4 0.5 0.38 0.12 </TABLE>
  </DEFINITION>

  <DEFINITION>
    <FOR>qgvertmotion</FOR>
    <TABLE>0.15 0.15 0.5 0.2 </TABLE>
  </DEFINITION>

  <DEFINITION>
    <FOR>n0_7muvermo</FOR>
    <TABLE>0.25 0.25 0.25 0.25 </TABLE>
  </DEFINITION>

  <DEFINITION>
    <FOR>lifr12zdensd</FOR>
    <TABLE>0.10000000000000002 0.5200000000000001 0.30000000000000004 0.08000000000000002 </TABLE>
  </DEFINITION>

  <DEFINITION>
    <FOR>sfcwndshfdis</FOR>
    <GIVEN>scenario</GIVEN>
    <TABLE>0.65 0.05 0.1 0.08 0.04 0.07 0.01 0.65 0.05 0.1 0.1 0.02 0.07 0.01 0.0 0.6499999999999999 0.19999999999999996 0.019999999999999997 0.059999999999999984 0.04999999999999999 0.019999999999999997 0.12 0.02 0.02 0.02 0.45 0.27 0.1 0.06 0.14 0.04 0.04 0.25 0.4 0.07 0.1 0.1 0.1 0.02 0.0 0.56 0.12 0.02 0.05 0.05 0.0 0.35 0.33 0.2 0.01 0.1 0.15 0.4 0.0 0.23 0.11 0.02 0.1 0.5 0.3 0.01 0.02 0.05 0.06 0.08 0.04 0.02 0.6 0.14 0.06 0.05 0.13 0.05 0.39 0.13 0.15 0.1 </TABLE>
  </DEFINITION>

  <DEFINITION>
    <FOR>r5fcst</FOR>
    <GIVEN>mountainfcst</GIVEN>
    <GIVEN>n34starfcst</GIVEN>
    <TABLE>1.0 0.0 0.0 0.0 1.0 0.0 0.0 0.0 1.0 0.0 1.0 0.0 0.0 1.0 0.0 0.0 0.0 1.0 0.0 0.0 1.0 0.0 0.0 1.0 0.0 0.0 1.0 </TABLE>
  </DEFINITION>

  <DEFINITION>
    <FOR>combmoisture</FOR>
    <GIVEN>satcontmoist</GIVEN>
    <GIVEN>raocontmoist</GIVEN>
    <TABLE>0.9 0.1 0.0 0.0 0.6 0.35 0.05 0.0 0.3 0.5 0.2 0.0 0.25 0.35 0.25 0.15 0.55 0.4 0.05 0.0 0.15 0.6 0.2 0.05 0.05 0.4 0.45 0.1 0.1 0.3 0.3 0.3 0.25 0.3 0.35 0.1 0.1 0.35 0.5 0.05 0.0 0.15 0.7 0.15 0.0 0.1 0.4 0.5 0.25 0.25 0.25 0.25 0.25 0.25 0.25 0.25 0.25 0.25 0.25 0.25 0.25 0.25 0.25 0.25 </TABLE>
  </DEFINITION>

  <DEFINITION>
    <FOR>lolevmoistad</FOR>
    <TABLE>0.12 0.28 0.3 0.3 </TABLE>
  </DEFINITION>

  <DEFINITION>
    <FOR>scenrelamcin</FOR>
    <GIVEN>scenario</GIVEN>
    <TABLE>1.0 0.0 1.0 0.0 0.0 1.0 0.0 1.0 0.0 1.0 0.0 1.0 0.0 1.0 0.0 1.0 0.0 1.0 0.0 1.0 0.0 1.0 </TABLE>
  </DEFINITION>

  <DEFINITION>
    <FOR>aminstabmt</FOR>
    <TABLE>0.333333 0.333333 0.333334 </TABLE>
  </DEFINITION>

  <DEFINITION>
    <FOR>lowllapse</FOR>
    <GIVEN>scenario</GIVEN>
    <TABLE>0.04000000000000001 0.25000000000000006 0.35000000000000003 0.36000000000000004 0.07 0.31 0.31 0.31 0.35 0.47 0.14 0.04 0.4 0.4 0.13 0.07 0.45 0.35 0.15 0.05 0.01 0.35 0.45 0.19 0.78 0.19 0.03 0.0 0.0 0.02 0.33 0.65 0.22000000000000003 0.4000000000000001 0.30000000000000004 0.08000000000000002 0.13 0.4 0.35 0.12 0.09 0.4 0.33 0.18 </TABLE>
  </DEFINITION>

  <DEFINITION>
    <FOR>windaloft</FOR>
    <GIVEN>scenario</GIVEN>
    <TABLE>0.0 0.95 0.01 0.04 0.2 0.3 0.2 0.3 0.05 0.09 0.59 0.27 0.03 0.32 0.42 0.23 0.07 0.66 0.02 0.25 0.5 0.0 0.0 0.5 0.25 0.3 0.25 0.2 0.2 0.14 0.43 0.23 0.2 0.41 0.1 0.29 0.96 0.0 0.0 0.04 0.03 0.08 0.33 0.56 </TABLE>
  </DEFINITION>

  <DEFINITION>
    <FOR>compplfcst</FOR>
    <GIVEN>boundaries</GIVEN>
    <GIVEN>cldshadeconv</GIVEN>
    <GIVEN>areameso_als</GIVEN>
    <GIVEN>cldshadeoth</GIVEN>
    <TABLE>0.4 0.35 0.25 0.1 0.35 0.55 0.05 0.3 0.65 0.6 0.25 0.15 0.4 0.3 0.3 0.2 0.5 0.3 0.6 0.35 0.05 0.45 0.4 0.15 0.25 0.45 0.3 0.7 0.27 0.03 0.65 0.3 0.05 0.6 0.35 0.05 0.4 0.35 0.25 0.25 0.3 0.45 0.15 0.35 0.5 0.65 0.25 0.1 0.45 0.3 0.25 0.25 0.5 0.25 0.65 0.3 0.05 0.5 0.4 0.1 0.3 0.45 0.25 0.75 0.23 0.02 0.7 0.26 0.04 0.65 0.32 0.03 0.45 0.3 0.25 0.4 0.3 0.3 0.35000000000000003 0.30000000000000004 0.35000000000000003 0.7000000000000001 0.22000000000000003 0.08000000000000002 0.55 0.3 0.15 0.4 0.45 0.15 0.7 0.27 0.03 0.6000000000000001 0.30000000000000004 0.10000000000000002 0.55 0.33 0.12 0.85 0.14 0.01 0.8 0.17 0.03 0.75 0.23 0.02 0.35 0.35 0.3 0.05 0.35 0.6 0.03 0.25 0.72 0.5 0.25 0.25 0.30000000000000004 0.35000000000000003 0.35000000000000003 0.15 0.45 0.4 0.55 0.3 0.15 0.4 0.4 0.2 0.2 0.4 0.4 0.6 0.35 0.05 0.6000000000000001 0.30000000000000004 0.10000000000000002 0.55 0.33 0.12 0.35 0.35 0.3 0.1 0.35 0.55 0.05 0.3 0.65 0.55 0.25 0.2 0.35 0.35 0.3 0.2 0.5 0.3 0.6000000000000001 0.30000000000000004 0.10000000000000002 0.45 0.4 0.15 0.25 0.5 0.25 0.65 0.3 0.05 0.65 0.3 0.05 0.6 0.35 0.05 0.4 0.35 0.25 0.25 0.4 0.35 0.2 0.4 0.4 0.65 0.25 0.1 0.45 0.35 0.2 0.3 0.5 0.2 0.65 0.3 0.05 0.55 0.3 0.15 0.5 0.3 0.2 0.78 0.18 0.04 0.75 0.2 0.05 0.7 0.25 0.05 0.3 0.3 0.4 0.01 0.25 0.74 0.01 0.2 0.79 0.35 0.25 0.4 0.15 0.4 0.45 0.1 0.35 0.55 0.45 0.3 0.25 0.3 0.4 0.3 0.15 0.4 0.45 0.5 0.35 0.15 0.48 0.32 0.2 0.45 0.35 0.2 0.3 0.3 0.4 0.05 0.6 0.35 0.04 0.27 0.69 0.4 0.25 0.35 0.2 0.4 0.4 0.12 0.43 0.45 0.5 0.3 0.2 0.35 0.4 0.25 0.2 0.45 0.35 0.55 0.35 0.1 0.55 0.3 0.15 0.5 0.4 0.1 0.30000000000000004 0.35000000000000003 0.35000000000000003 0.15 0.35 0.5 0.13 0.35 0.52 0.5 0.25 0.25 0.35 0.35 0.3 0.2 0.45 0.35 0.55 0.35 0.1 0.45 0.35 0.2 0.4 0.35 0.25 0.7 0.24 0.06 0.65 0.28 0.07 0.6000000000000001 0.30000000000000004 0.10000000000000002 </TABLE>
  </DEFINITION>

  <DEFINITION>
    <FOR>combvermo</FOR>
    <GIVEN>n0_7muvermo</GIVEN>
    <GIVEN>subjvertmo</GIVEN>
    <GIVEN>qgvertmotion</GIVEN>
    <TABLE>1.0 0.0 0.0 0.0 0.9 0.1 0.0 0.0 0.7000000000000001 0.20000000000000004 0.10000000000000002 0.0 0.20000000000000004 0.5000000000000001 0.20000000000000004 0.10000000000000002 0.9 0.1 0.0 0.0 0.7 0.3 0.0 0.0 0.15 0.7 0.15 0.0 0.10000000000000002 0.35000000000000003 0.45000000000000007 0.10000000000000002 0.7000000000000001 0.20000000000000004 0.10000000000000002 0.0 0.15 0.7 0.15 0.0 0.2 0.6 0.2 0.0 0.1 0.2 0.6 0.1 0.20000000000000004 0.5000000000000001 0.20000000000000004 0.10000000000000002 0.10000000000000002 0.35000000000000003 0.45000000000000007 0.10000000000000002 0.1 0.2 0.6 0.1 0.1 0.1 0.2 0.6 0.9 0.1 0.0 0.0 0.7 0.3 0.0 0.0 0.15 0.7 0.15 0.0 0.10000000000000002 0.35000000000000003 0.45000000000000007 0.10000000000000002 0.7 0.3 0.0 0.0 0.0 1.0 0.0 0.0 0.0 0.7 0.3 0.0 0.0 0.20000000000000004 0.7000000000000001 0.10000000000000002 0.15 0.7 0.15 0.0 0.0 0.7 0.3 0.0 0.0 0.3 0.7 0.0 0.0 0.15 0.5 0.35 0.10000000000000002 0.35000000000000003 0.45000000000000007 0.10000000000000002 0.0 0.20000000000000004 0.7000000000000001 0.10000000000000002 0.0 0.15 0.5 0.35 0.0 0.1 0.2 0.7 0.7000000000000001 0.20000000000000004 0.10000000000000002 0.0 0.15 0.7 0.15 0.0 0.2 0.6 0.2 0.0 0.1 0.2 0.6 0.1 0.15 0.7 0.15 0.0 0.0 0.7 0.3 0.0 0.0 0.3 0.7 0.0 0.0 0.15 0.5 0.35 0.2 0.6 0.2 0.0 0.0 0.3 0.7 0.0 0.0 0.0 1.0 0.0 0.0 0.0 0.7 0.3 0.1 0.2 0.6 0.1 0.0 0.15 0.5 0.35 0.0 0.0 0.7 0.3 0.0 0.0 0.3 0.7 0.20000000000000004 0.5000000000000001 0.20000000000000004 0.10000000000000002 0.10000000000000002 0.35000000000000003 0.45000000000000007 0.10000000000000002 0.1 0.2 0.6 0.1 0.1 0.1 0.2 0.6 0.10000000000000002 0.35000000000000003 0.45000000000000007 0.10000000000000002 0.0 0.20000000000000004 0.7000000000000001 0.10000000000000002 0.0 0.15 0.5 0.35 0.0 0.1 0.2 0.7 0.1 0.2 0.6 0.1 0.0 0.15 0.5 0.35 0.0 0.0 0.7 0.3 0.0 0.0 0.3 0.7 0.1 0.1 0.2 0.6 0.0 0.1 0.2 0.7 0.0 0.0 0.3 0.7 0.0 0.0 0.0 1.0 </TABLE>
  </DEFINITION>

  <DEFINITION>
    <FOR>amdewptcalpl</FOR>
    <TABLE>0.3 0.25 0.45 </TABLE>
  </DEFINITION>

</NETWORK>
</BIF>